{
    "version": "0.5.0",
    "architecture": "WaveNet",
    "config": {
        "layers": [
            {
                "input_size": 1,
                "condition_size": 1,
                "head_size": 8,
                "channels": 16,
                "kernel_size": 3,
                "dilations": [
                    1,
                    2,
                    4,
                    8,
                    16,
                    32,
                    64,
                    128,
                    256,
                    512
                ],
                "activation": "Tanh",
                "gated": false,
                "head_bias": false
            },
            {
                "input_size": 16,
                "condition_size": 1,
                "head_size": 1,
                "channels": 8,
                "kernel_size": 3,
                "dilations": [
                    1,
                    2,
                    4,
                    8,
                    16,
                    32,
                    64,
                    128,
                    256,
                    512
                ],
                "activation": "Tanh",
                "gated": false,
                "head_bias": true
            }
        ],
        "head": null,
        "head_scale": 0.02
    },
    "weights": [
        -0.015556770376861095,
        0.48984333872795105,
        -0.8739496469497681,
        -0.8393236994743347,
        -0.2843129634857178,
        0.4303096830844879,
        -0.1393704116344452,
        0.8797599673271179,
        -0.16743382811546326,
        0.22322608530521393,
        -0.3779825270175934,
        -0.2270449846982956,
        -1.0075116157531738,
        -0.7743951082229614,
        -0.3847171664237976,
        0.1502513438463211,
        0.17784129083156586,
        0.19352495670318604,
        -0.07016167789697647,
        -0.1978434920310974,
        -0.018948400393128395,
        0.1332601010799408,
        0.10807747393846512,
        0.18667705357074738,
        -0.031270623207092285,
        0.15360534191131592,
        0.2093396931886673,
        -0.14265687763690948,
        0.039208948612213135,
        0.046213120222091675,
        -0.05578413978219032,
        -0.01780300959944725,
        -0.17270775139331818,
        -0.05377330631017685,
        0.05212785676121712,
        -0.037545885890722275,
        -0.09010720998048782,
        -0.014656471088528633,
        -0.013880111277103424,
        0.07867960631847382,
        0.14983294904232025,
        0.014166970737278461,
        0.01924607716500759,
        -0.26556113362312317,
        -0.19087088108062744,
        -0.0775899887084961,
        0.23025007545948029,
        0.1650507152080536,
        -0.0714191272854805,
        0.1302243173122406,
        0.18008427321910858,
        0.14371979236602783,
        0.19511790573596954,
        0.09672890603542328,
        0.08788865804672241,
        0.0544879250228405,
        0.10437764972448349,
        -0.12222526967525482,
        0.03554264456033707,
        0.0058984714560210705,
        0.06032729148864746,
        -0.09267976880073547,
        -0.1768488883972168,
        0.050662800669670105,
        0.1541852504014969,
        0.10819754004478455,
        -0.009377808310091496,
        -0.06534110754728317,
        -0.05284310504794121,
        0.10988521575927734,
        -0.01501255389302969,
        0.09010575711727142,
        0.08044886589050293,
        0.21665018796920776,
        0.269966185092926,
        0.15172360837459564,
        0.12430603802204132,
        0.0166320838034153,
        0.03770627826452255,
        -0.18659581243991852,
        -0.28024962544441223,
        0.10850828886032104,
        0.19655287265777588,
        -0.00027857080567628145,
        0.021962156519293785,
        -0.12128234654664993,
        -0.16737566888332367,
        -0.09100504964590073,
        0.14864063262939453,
        0.05989791825413704,
        0.06533566862344742,
        -0.02245347388088703,
        -0.04145075008273125,
        0.034762825816869736,
        -0.047679852694272995,
        0.049078620970249176,
        0.09327524155378342,
        0.12384764850139618,
        0.031499579548835754,
        -0.06749101728200912,
        0.23284156620502472,
        0.24058669805526733,
        -0.03744678571820259,
        0.060872022062540054,
        0.0066948845051229,
        0.022203749045729637,
        -0.013209106400609016,
        0.031227126717567444,
        0.013525988906621933,
        -0.06894530355930328,
        -0.20217765867710114,
        0.07984156161546707,
        -0.0931084007024765,
        0.005400436464697123,
        0.20773866772651672,
        -0.10047838091850281,
        0.05372406169772148,
        -0.04896572232246399,
        0.0022640572860836983,
        -0.06376717239618301,
        0.11986778676509857,
        -0.009333725087344646,
        -0.16855023801326752,
        0.13442029058933258,
        -0.1569359302520752,
        -0.18011903762817383,
        0.021619269624352455,
        -0.0562438890337944,
        0.05382343754172325,
        -0.20166487991809845,
        -0.028087269514799118,
        -0.11404352635145187,
        0.06635387986898422,
        0.01080675795674324,
        0.19999772310256958,
        -0.07910840958356857,
        -0.004008984658867121,
        -0.12451830506324768,
        0.13235019147396088,
        0.10752342641353607,
        0.24019362032413483,
        0.020723911002278328,
        0.12091201543807983,
        -0.10983984917402267,
        -0.0585661455988884,
        -0.08474650979042053,
        -0.011367689818143845,
        0.07688593864440918,
        -0.09029343724250793,
        -0.20629999041557312,
        -0.0727149248123169,
        -0.1393260657787323,
        -0.12658949196338654,
        0.14597398042678833,
        0.058770015835762024,
        -0.23870417475700378,
        0.15509305894374847,
        -0.10577018558979034,
        0.08979901671409607,
        -0.17897580564022064,
        -0.047583963721990585,
        0.10661564022302628,
        -0.16848748922348022,
        -0.13259883224964142,
        -0.15314975380897522,
        0.031295426189899445,
        -0.0625799298286438,
        0.1900840550661087,
        -0.163638636469841,
        -0.006449418142437935,
        0.264392226934433,
        -0.09251818060874939,
        0.13302505016326904,
        0.18222951889038086,
        -0.158429354429245,
        0.09165339171886444,
        -0.16151602566242218,
        -0.023570066317915916,
        0.09324643760919571,
        0.05133712291717529,
        -0.050620101392269135,
        -0.033906735479831696,
        -0.03314298763871193,
        0.07409080117940903,
        0.06202182546257973,
        0.19902363419532776,
        -0.0801619216799736,
        -0.0283356923609972,
        -0.2553485929965973,
        0.10789952427148819,
        0.11555652320384979,
        0.236475870013237,
        -0.13873031735420227,
        0.00406568543985486,
        0.03986202925443649,
        -0.11355425417423248,
        -0.08020617812871933,
        0.1843607872724533,
        -0.11897856742143631,
        7.794897101121023e-05,
        0.143545001745224,
        0.058039404451847076,
        -0.1066635251045227,
        0.036520637571811676,
        -0.11576248705387115,
        0.10954452306032181,
        -0.20694489777088165,
        0.17580796778202057,
        -0.09406229108572006,
        -0.1470836102962494,
        -0.031473081558942795,
        0.10367999225854874,
        0.14888407289981842,
        0.0025783912278711796,
        -0.1391763836145401,
        -0.12295359373092651,
        -0.14996416866779327,
        -0.21347297728061676,
        -0.025199519470334053,
        -0.1535838097333908,
        -0.14608798921108246,
        0.0027848761528730392,
        0.014028644189238548,
        0.14438745379447937,
        0.022488463670015335,
        0.1045181080698967,
        -0.2516098916530609,
        -0.21464180946350098,
        -0.06874720007181168,
        0.11577247083187103,
        0.14171206951141357,
        0.1553650200366974,
        -0.1245374009013176,
        -0.02634994313120842,
        0.05777091532945633,
        0.05069294571876526,
        0.21575619280338287,
        -0.0631076842546463,
        -0.19990174472332,
        -0.10103218257427216,
        0.012332824990153313,
        -0.03483409062027931,
        -0.20014697313308716,
        -0.03663814067840576,
        -0.06253132969141006,
        -0.2788403332233429,
        0.06756079196929932,
        -0.2565496861934662,
        -0.13852740824222565,
        -0.06021416559815407,
        -0.21375389397144318,
        -0.12328657507896423,
        0.08314646780490875,
        0.09970397502183914,
        0.07005789875984192,
        -0.030361901968717575,
        -0.17072507739067078,
        -0.02725950814783573,
        0.0012455158866941929,
        -0.04940410330891609,
        -0.02817310020327568,
        0.08258874714374542,
        0.03254709392786026,
        0.05112215131521225,
        0.061703894287347794,
        -0.09207657724618912,
        -0.10036612302064896,
        0.05368569865822792,
        0.072889044880867,
        -0.027385899797081947,
        -0.06572741270065308,
        -0.027766607701778412,
        -0.07633426040410995,
        0.00378808262757957,
        -0.10398181527853012,
        -0.22848400473594666,
        0.2310461401939392,
        -0.049631133675575256,
        0.04261436685919762,
        0.03232860937714577,
        -0.03120131604373455,
        -0.16809803247451782,
        -0.07096057385206223,
        0.15815283358097076,
        0.0945788323879242,
        0.1016467958688736,
        -0.09023936837911606,
        -0.01753205992281437,
        -0.01647794246673584,
        -0.04745742678642273,
        -0.15840557217597961,
        0.07569880783557892,
        0.0012472852831706405,
        -0.06151764467358589,
        -0.025037189945578575,
        -0.13258345425128937,
        0.0414009653031826,
        -0.09641116857528687,
        0.014501804485917091,
        -0.11180486530065536,
        -0.057560887187719345,
        0.05863175541162491,
        -0.0016335092950612307,
        -0.030465975403785706,
        0.016943365335464478,
        -0.1751869171857834,
        0.09838199615478516,
        0.09159762412309647,
        0.0871255025267601,
        -0.056518420577049255,
        -0.1469435691833496,
        -0.059326883405447006,
        0.09338472038507462,
        -0.08025307953357697,
        0.01837407983839512,
        0.14145615696907043,
        -0.10469697415828705,
        -0.042071882635354996,
        0.09745506197214127,
        0.03408142924308777,
        0.04707910120487213,
        -0.040144771337509155,
        -0.12165786325931549,
        -0.04426394775509834,
        0.20245307683944702,
        0.15808776021003723,
        0.1200362965464592,
        -0.024643177166581154,
        0.050182268023490906,
        -0.11335199326276779,
        -0.050392743200063705,
        -0.09923569113016129,
        0.19162477552890778,
        0.04311056062579155,
        -0.12547490000724792,
        0.02024170197546482,
        0.15820294618606567,
        0.11904379725456238,
        0.07703721523284912,
        0.16536292433738708,
        -0.06133851036429405,
        -0.08531010895967484,
        0.1610899269580841,
        0.05374575033783913,
        -0.12103483825922012,
        0.17562414705753326,
        0.040659982711076736,
        0.03789519891142845,
        -0.0459742434322834,
        0.05732642859220505,
        -0.008112668991088867,
        0.03176599740982056,
        -0.10231838375329971,
        -0.09138570725917816,
        -0.011416624300181866,
        0.15016590058803558,
        0.054922185838222504,
        0.13179931044578552,
        -0.19013550877571106,
        -0.0797584131360054,
        -0.1585504412651062,
        -0.23141436278820038,
        -0.2282188981771469,
        0.05442274734377861,
        -0.006613373290747404,
        0.02617255412042141,
        0.055458683520555496,
        -0.03907385095953941,
        0.019924048334360123,
        0.030794309452176094,
        -0.17915089428424835,
        -0.07189776748418808,
        -0.13637278974056244,
        0.018422462046146393,
        -0.028341280296444893,
        -0.021860776469111443,
        0.03275470435619354,
        -0.00984478835016489,
        0.05757288262248039,
        0.19780543446540833,
        0.2467581033706665,
        0.02050155960023403,
        -0.024643108248710632,
        0.014664108864963055,
        -0.009818739257752895,
        0.05494397506117821,
        -0.04913969337940216,
        0.03385098651051521,
        -0.1392524540424347,
        -0.040850043296813965,
        -0.04409708082675934,
        -0.12355711311101913,
        -0.19306083023548126,
        -0.1404445618391037,
        -0.20010672509670258,
        -0.016192391514778137,
        0.04375983402132988,
        0.07081295549869537,
        0.053479522466659546,
        0.1494608074426651,
        0.07709656655788422,
        -0.1037055179476738,
        0.047595106065273285,
        0.18947996199131012,
        0.1630609631538391,
        -0.1743095964193344,
        0.08520761132240295,
        -0.0006365091539919376,
        0.020562419667840004,
        0.028546452522277832,
        -0.19295774400234222,
        0.05304007977247238,
        0.07056078314781189,
        -0.1019732803106308,
        -0.04073153808712959,
        0.0007368251099251211,
        0.07732097059488297,
        -0.12125121802091599,
        -0.014036828652024269,
        -0.018781190738081932,
        0.159605473279953,
        -0.035643186420202255,
        0.11772540956735611,
        -0.004513522610068321,
        0.030235998332500458,
        -0.255508154630661,
        0.08131524920463562,
        -0.061650704592466354,
        0.05031362548470497,
        -0.024364853277802467,
        -0.15321294963359833,
        -0.05852498114109039,
        0.20312106609344482,
        -0.036021195352077484,
        -0.21302075684070587,
        0.033009160310029984,
        -0.02215869538486004,
        -0.2191917598247528,
        0.1437007635831833,
        -0.1841498613357544,
        -0.24975159764289856,
        -0.06352677941322327,
        -0.08102472871541977,
        -0.013455644249916077,
        -0.06341233849525452,
        0.15972480177879333,
        0.07406055927276611,
        -0.08134875446557999,
        -0.05128294602036476,
        -0.2694595158100128,
        0.12734277546405792,
        0.14365260303020477,
        0.24792850017547607,
        0.09094846993684769,
        -0.16085948050022125,
        0.007237276528030634,
        -0.00838142167776823,
        0.0035113177727907896,
        -0.2292722761631012,
        -0.05645385757088661,
        -0.20740726590156555,
        -0.17000775039196014,
        0.012088268995285034,
        -0.050715092569589615,
        0.1641409695148468,
        0.08436857163906097,
        -0.02871050499379635,
        -0.24302366375923157,
        -0.08667943626642227,
        0.020610129460692406,
        0.17558783292770386,
        0.1582496017217636,
        0.02455132082104683,
        -0.14285655319690704,
        0.051646266132593155,
        -0.07589475810527802,
        -0.0008568683406338096,
        0.08150721341371536,
        -0.14512088894844055,
        -0.04510010406374931,
        -0.11440826952457428,
        -0.13509294390678406,
        -0.2427859604358673,
        0.06644207239151001,
        -0.080110102891922,
        -0.00021182287309784442,
        0.07251457870006561,
        0.015003115870058537,
        -0.1079649105668068,
        -0.05942630022764206,
        -0.09625396132469177,
        -0.0947943776845932,
        0.05707843229174614,
        -0.045459430664777756,
        0.24936480820178986,
        -0.026982976123690605,
        -0.06493953615427017,
        0.057451337575912476,
        -0.027200985699892044,
        0.028256842866539955,
        -0.27747151255607605,
        0.2386765331029892,
        0.17254172265529633,
        0.23491184413433075,
        -0.019696541130542755,
        0.022959904745221138,
        0.19672483205795288,
        -0.0838555321097374,
        0.05341777577996254,
        0.19560304284095764,
        -0.17280662059783936,
        -0.009390527382493019,
        -0.1960107833147049,
        0.10224106162786484,
        0.11593588441610336,
        0.2241455614566803,
        -0.26441633701324463,
        -0.0885654091835022,
        -0.0659167617559433,
        0.12757743895053864,
        0.1338702291250229,
        0.1233636885881424,
        -0.11180426925420761,
        -0.1961335688829422,
        -0.23646828532218933,
        0.0659099668264389,
        0.230865016579628,
        0.11063480377197266,
        -0.1467362344264984,
        0.022037915885448456,
        0.2990287244319916,
        -0.006308463402092457,
        -0.007492736913263798,
        0.031458888202905655,
        -0.2501049041748047,
        0.10077998042106628,
        0.1138850748538971,
        -0.23854008316993713,
        0.04610058292746544,
        0.17621935904026031,
        -0.2169121950864792,
        -0.057106029242277145,
        -0.1915520876646042,
        0.10619153082370758,
        0.1493556946516037,
        0.2734971046447754,
        -0.05541884899139404,
        -0.08582848310470581,
        -0.16297060251235962,
        0.09464912116527557,
        -0.03517443314194679,
        -0.017011187970638275,
        0.19080033898353577,
        0.010134635493159294,
        0.14912091195583344,
        0.03524385020136833,
        0.06785343587398529,
        0.0855623260140419,
        0.13877874612808228,
        -0.10007031261920929,
        -0.26931098103523254,
        -0.13057823479175568,
        0.08331362903118134,
        0.23581576347351074,
        -0.05949071794748306,
        0.03585437312722206,
        -0.15200281143188477,
        -0.07358825206756592,
        0.22586733102798462,
        0.2099819779396057,
        0.16398993134498596,
        -0.02411150373518467,
        -0.17298822104930878,
        -0.1426638513803482,
        0.09309256076812744,
        0.24372205138206482,
        -0.00133393588475883,
        -0.02197439596056938,
        0.19345097243785858,
        0.18777409195899963,
        0.05832785367965698,
        -0.0007508235285058618,
        -0.08290865272283554,
        0.13657186925411224,
        0.10940513759851456,
        -0.025675766170024872,
        0.13135746121406555,
        0.1769716441631317,
        0.16179712116718292,
        -0.005681968294084072,
        -0.16468967497348785,
        -0.16515055298805237,
        0.045478761196136475,
        0.2429046481847763,
        0.0915440022945404,
        -0.12864574790000916,
        -0.23753410577774048,
        0.07422229647636414,
        0.3257930874824524,
        0.24243013560771942,
        -0.06493240594863892,
        0.13600017130374908,
        0.013875679112970829,
        0.19397255778312683,
        0.12345705926418304,
        0.048756275326013565,
        0.13483205437660217,
        -0.2598559856414795,
        -0.1843358874320984,
        -0.0667022168636322,
        0.17354391515254974,
        -0.005389624275267124,
        0.15271519124507904,
        -0.253334641456604,
        -0.06106269359588623,
        0.0679384097456932,
        0.26367664337158203,
        0.1342700868844986,
        0.17207494378089905,
        -0.17018550634384155,
        -0.18422557413578033,
        0.08089593052864075,
        0.22255997359752655,
        -0.029475349932909012,
        0.01416409108787775,
        0.09013412892818451,
        0.24150674045085907,
        0.028358859941363335,
        0.05821940302848816,
        0.10311860591173172,
        0.14846867322921753,
        0.22819484770298004,
        0.15802890062332153,
        0.07069782167673111,
        0.24143323302268982,
        0.0770643949508667,
        -0.0024934897664934397,
        -0.32301875948905945,
        -0.21683849394321442,
        0.02090037614107132,
        -0.07967546582221985,
        0.15833933651447296,
        -0.03616591542959213,
        -0.026978058740496635,
        -0.21499471366405487,
        0.2006891816854477,
        -0.052082426846027374,
        0.24588337540626526,
        -0.1840575486421585,
        -0.002824469469487667,
        0.20737601816654205,
        -0.12836380302906036,
        0.15423530340194702,
        0.025601979345083237,
        -0.1816454380750656,
        -0.09285446256399155,
        -0.1124277412891388,
        0.21257013082504272,
        -0.06128488853573799,
        0.21975895762443542,
        -0.15157149732112885,
        -0.06382926553487778,
        -0.021480251103639603,
        -0.042863186448812485,
        0.03739907220005989,
        0.279898464679718,
        -0.10497689992189407,
        0.08428502082824707,
        -0.1770595908164978,
        0.18119637668132782,
        -0.1099509596824646,
        0.10912928730249405,
        -0.09847285598516464,
        0.07256137579679489,
        0.1926211714744568,
        0.03826119750738144,
        0.01139936875551939,
        0.12069152295589447,
        0.031069818884134293,
        -0.006984059698879719,
        0.2551406919956207,
        -0.1667337864637375,
        0.016381951048970222,
        0.12106551975011826,
        -0.0020836200565099716,
        0.0788973718881607,
        -0.17349311709403992,
        -0.022653529420495033,
        -0.015256037004292011,
        -0.1130150705575943,
        0.07689210772514343,
        -0.005501159932464361,
        0.20995564758777618,
        0.12877915799617767,
        -0.07465014606714249,
        -0.26283401250839233,
        0.10952737182378769,
        -0.19323302805423737,
        -0.0948617234826088,
        0.030247939750552177,
        -0.15049949288368225,
        -0.07393204420804977,
        -0.12064766883850098,
        0.12009260058403015,
        0.04311466962099075,
        -0.02961478754878044,
        -0.06836845725774765,
        -0.0384957455098629,
        -0.034398723393678665,
        0.17821252346038818,
        0.10794345289468765,
        -0.07789961248636246,
        -0.21021658182144165,
        -0.273627370595932,
        0.16132043302059174,
        0.04946126043796539,
        0.14227133989334106,
        0.02928917668759823,
        0.011819320730865002,
        -0.006758941803127527,
        0.12816885113716125,
        -0.19516099989414215,
        -0.1628534197807312,
        -0.0743347555398941,
        -0.16791339218616486,
        -0.09097310155630112,
        0.14427994191646576,
        -0.2011733204126358,
        -0.039401452988386154,
        -0.06461361795663834,
        -0.11373347043991089,
        -0.013990375213325024,
        -0.022786224260926247,
        0.09992209821939468,
        0.0450003482401371,
        0.09671659022569656,
        -0.1262054294347763,
        -0.23848895728588104,
        0.1023227795958519,
        0.022971725091338158,
        -0.008884058333933353,
        -0.037447523325681686,
        -0.013996250927448273,
        -0.15572723746299744,
        0.11351876705884933,
        -0.005142927169799805,
        -0.020657368004322052,
        -0.02976938523352146,
        -0.13788913190364838,
        -0.16131238639354706,
        -0.07357808202505112,
        0.1303861290216446,
        0.22828689217567444,
        0.06886768341064453,
        -0.10765161365270615,
        -0.09840099513530731,
        0.015971705317497253,
        0.23782287538051605,
        0.0537445992231369,
        -0.14589421451091766,
        -0.10236149281263351,
        -0.037362467497587204,
        -0.07205578684806824,
        0.256560742855072,
        0.17963019013404846,
        -0.14562803506851196,
        -0.15884996950626373,
        0.010139478370547295,
        -0.06276465207338333,
        -0.16922956705093384,
        -0.08147984743118286,
        -0.0777527466416359,
        -0.04917455092072487,
        -0.037472259253263474,
        0.13466760516166687,
        -0.22103340923786163,
        0.029971517622470856,
        -0.038812410086393356,
        0.01851022057235241,
        -0.2537211775779724,
        -0.08125372976064682,
        0.21424797177314758,
        0.13371892273426056,
        -0.058690544217824936,
        -0.2406609207391739,
        -0.11137636750936508,
        -0.08606899529695511,
        -0.095992811024189,
        0.06860285997390747,
        0.019308116286993027,
        -0.034331925213336945,
        0.02316809631884098,
        0.1599811464548111,
        0.0970139130949974,
        -0.09764570742845535,
        0.0382956862449646,
        -0.1549762636423111,
        -0.08287179470062256,
        -0.06660520285367966,
        0.01587294228374958,
        0.45320677757263184,
        -0.45464590191841125,
        0.7405396103858948,
        -0.6704561114311218,
        0.04070409759879112,
        0.896782398223877,
        0.9561283588409424,
        -0.5164434909820557,
        0.11172602325677872,
        0.13776449859142303,
        -0.3319694399833679,
        -0.3946691155433655,
        0.21201609075069427,
        -0.6297153830528259,
        0.15833516418933868,
        0.3901742696762085,
        -0.14125552773475647,
        0.1503015160560608,
        0.0676426887512207,
        0.11262974143028259,
        0.3265489339828491,
        -0.0021554853301495314,
        0.21130801737308502,
        0.025831004604697227,
        -0.02250021882355213,
        0.025087447836995125,
        -0.057675551623106,
        -0.18528161942958832,
        0.0038013532757759094,
        -0.03468785434961319,
        0.2634160816669464,
        0.06540507078170776,
        0.09116420149803162,
        0.0012633638689294457,
        -0.301275372505188,
        0.16596275568008423,
        -0.07501298189163208,
        -0.17372801899909973,
        -0.1877416968345642,
        0.037236329168081284,
        -0.15054428577423096,
        0.05234235152602196,
        0.14404192566871643,
        0.14192533493041992,
        0.15952168405056,
        0.04017523303627968,
        -0.013577033765614033,
        0.09222617000341415,
        0.08731682598590851,
        0.13194341957569122,
        -0.07458850741386414,
        0.22802473604679108,
        -0.21368855237960815,
        -0.2131425440311432,
        0.014123347587883472,
        -0.21953950822353363,
        -0.0684979259967804,
        -0.2169438898563385,
        0.2655546963214874,
        -0.13255050778388977,
        0.23488187789916992,
        0.3340332806110382,
        -0.01925969123840332,
        -0.09245535731315613,
        0.3605351746082306,
        0.005414568819105625,
        -0.08873570710420609,
        0.0054151639342308044,
        -0.11832249909639359,
        -0.064485564827919,
        -0.06863228231668472,
        -0.11329513043165207,
        -0.3922125995159149,
        -0.1222928911447525,
        0.19052399694919586,
        0.047717683017253876,
        0.23727786540985107,
        0.3702734410762787,
        -0.23750433325767517,
        -0.12475282698869705,
        -0.15037241578102112,
        -0.3227813243865967,
        -0.1179136112332344,
        0.18892130255699158,
        0.23878765106201172,
        0.20739847421646118,
        0.2223905473947525,
        -0.10589345544576645,
        0.07025988399982452,
        0.3118121922016144,
        -0.20025889575481415,
        0.16928629577159882,
        -0.020442737266421318,
        0.1132141649723053,
        -0.030909748747944832,
        0.1311502754688263,
        -0.3192683756351471,
        -0.12960368394851685,
        0.2595168948173523,
        -0.03341885283589363,
        0.34136858582496643,
        0.3976512551307678,
        0.39428576827049255,
        0.23090481758117676,
        0.29700204730033875,
        0.11917952448129654,
        -0.3823922574520111,
        -0.18193764984607697,
        -0.07265272736549377,
        -0.27474072575569153,
        0.33117005228996277,
        0.2695142328739166,
        0.21001476049423218,
        0.27909260988235474,
        0.07293977588415146,
        0.24353614449501038,
        -0.4437630772590637,
        -0.38619452714920044,
        -0.07167822867631912,
        -0.12645502388477325,
        -0.03956879675388336,
        -0.46750056743621826,
        -0.04612312838435173,
        0.3566085398197174,
        0.36488890647888184,
        -0.030469609424471855,
        -0.06481092423200607,
        -0.35537686944007874,
        0.19703517854213715,
        0.03169682249426842,
        0.41808533668518066,
        -0.2685118019580841,
        -0.1665894091129303,
        0.27195611596107483,
        0.3705672323703766,
        0.15494543313980103,
        0.1865885853767395,
        -0.13598965108394623,
        0.09457510709762573,
        -0.27611830830574036,
        0.06854362040758133,
        -0.22930528223514557,
        0.06677861511707306,
        0.16743679344654083,
        -0.012225198559463024,
        0.04606236144900322,
        -0.34059032797813416,
        -0.14159955084323883,
        0.018165431916713715,
        -0.22334024310112,
        -0.26251211762428284,
        -0.12824410200119019,
        -0.30338332056999207,
        -0.3110732436180115,
        0.27127569913864136,
        0.18933209776878357,
        0.06747346371412277,
        -0.02079753391444683,
        -0.011656264774501324,
        -0.06800953298807144,
        -0.09378008544445038,
        0.2026849091053009,
        0.07506152987480164,
        -0.17831701040267944,
        -0.4234568774700165,
        -0.12077774852514267,
        0.023230407387018204,
        -0.2608366310596466,
        -0.03932492807507515,
        0.014951669611036777,
        0.22055312991142273,
        0.1772497296333313,
        0.35420069098472595,
        0.29041004180908203,
        -0.3061141073703766,
        -0.1176273375749588,
        0.18903103470802307,
        0.2850583493709564,
        -0.3608837425708771,
        0.21356503665447235,
        -0.14144690334796906,
        -0.3217053711414337,
        -0.04789217561483383,
        -0.14327582716941833,
        -0.05430758371949196,
        -0.25352928042411804,
        -0.05942968651652336,
        0.019509542733430862,
        -0.057347338646650314,
        0.24117152392864227,
        -0.08358880877494812,
        0.11283943802118301,
        0.0967378169298172,
        -0.006604744587093592,
        0.055578913539648056,
        0.05793146416544914,
        -0.05235510319471359,
        -0.15869231522083282,
        -0.10633713752031326,
        -0.06212104484438896,
        -0.0867438018321991,
        -0.2906497120857239,
        0.11214510351419449,
        -0.18002817034721375,
        -0.017308328300714493,
        0.2208210527896881,
        -0.29454800486564636,
        -0.26798078417778015,
        -0.08123937994241714,
        -0.06753338128328323,
        0.048866890370845795,
        0.019915645942091942,
        0.12714509665966034,
        -0.18123196065425873,
        -0.0159189160913229,
        0.1112888753414154,
        0.25885602831840515,
        -0.0037320225965231657,
        -0.18552950024604797,
        0.11909262835979462,
        0.17317843437194824,
        -0.16948862373828888,
        -0.1136423721909523,
        0.15782490372657776,
        0.04605155065655708,
        -0.1456851363182068,
        -0.25967785716056824,
        0.16534119844436646,
        -0.17992879450321198,
        0.06990442425012589,
        0.08770859986543655,
        -0.027974918484687805,
        -0.08620644360780716,
        -0.17443671822547913,
        0.09806939214468002,
        0.13053567707538605,
        -0.11802415549755096,
        0.030084509402513504,
        -0.32664138078689575,
        0.03662880137562752,
        -0.12337040901184082,
        0.24229402840137482,
        -0.08880177140235901,
        -0.15313248336315155,
        0.08397787809371948,
        0.02915923111140728,
        0.1456095278263092,
        0.04095424711704254,
        -0.22948861122131348,
        0.1352822333574295,
        -0.04543214291334152,
        -0.07788871228694916,
        0.2003275603055954,
        0.1810406893491745,
        -0.26223501563072205,
        -0.04195006191730499,
        0.1855136603116989,
        0.006289525423198938,
        0.32253479957580566,
        -0.14311346411705017,
        -0.04656511917710304,
        0.3199840188026428,
        0.2179022580385208,
        0.28272151947021484,
        -0.05182219296693802,
        -0.06965557485818863,
        -0.10468146204948425,
        -0.3026660084724426,
        0.05086430162191391,
        0.09535521268844604,
        0.18987052142620087,
        0.059501972049474716,
        0.016056356951594353,
        -0.17107291519641876,
        0.24595488607883453,
        -0.3282790184020996,
        -0.27389562129974365,
        -0.01277200598269701,
        0.19219721853733063,
        -0.02264001965522766,
        0.02639523148536682,
        -0.13516376912593842,
        0.0577821247279644,
        -0.03764105960726738,
        0.16995751857757568,
        0.20996923744678497,
        0.14307458698749542,
        -0.03670426830649376,
        0.0437789149582386,
        -0.04376647248864174,
        -0.16780239343643188,
        0.024812571704387665,
        -0.12634345889091492,
        0.1556341052055359,
        -0.14903055131435394,
        -0.06421811133623123,
        0.19872456789016724,
        -0.2411908656358719,
        -0.081641785800457,
        0.05479305982589722,
        -0.02791181020438671,
        -0.045997001230716705,
        -0.025917166844010353,
        0.26909422874450684,
        -0.009430348873138428,
        -0.1381540298461914,
        -0.1489444226026535,
        -0.11984747648239136,
        0.27939528226852417,
        0.13199545443058014,
        -0.024145031347870827,
        -0.34128108620643616,
        -0.13414445519447327,
        0.023857129737734795,
        0.07253635674715042,
        -0.18591710925102234,
        -0.02665899693965912,
        -0.015191198326647282,
        -0.2621996998786926,
        -0.109901562333107,
        0.19131891429424286,
        -0.2868194282054901,
        -0.1718013882637024,
        0.19531410932540894,
        -0.09555549174547195,
        0.10449732840061188,
        0.01568850502371788,
        -0.09080734848976135,
        0.08639774471521378,
        0.03150319308042526,
        -0.13207179307937622,
        0.09099408239126205,
        0.13085083663463593,
        0.17262160778045654,
        -0.06520435214042664,
        -0.32706862688064575,
        -0.013627924025058746,
        0.025137484073638916,
        0.22490194439888,
        -0.12529389560222626,
        -0.01141998078674078,
        -0.013213974423706532,
        0.07268720865249634,
        0.030707860365509987,
        0.05205404385924339,
        -0.08024032413959503,
        0.06111239641904831,
        -0.16501910984516144,
        0.0185125470161438,
        -0.15612973272800446,
        0.13020150363445282,
        -0.2972674071788788,
        -0.23180221021175385,
        0.0332784503698349,
        0.17987017333507538,
        -0.10064871609210968,
        -0.16425830125808716,
        -0.008195522241294384,
        -0.10813874006271362,
        0.0871727392077446,
        0.002217412693426013,
        0.04834357649087906,
        -0.1058063730597496,
        0.11667454242706299,
        0.03511136397719383,
        -0.20462249219417572,
        0.18356940150260925,
        0.10969565808773041,
        -0.07545853406190872,
        0.05792849138379097,
        0.03861410543322563,
        0.0657069981098175,
        -0.035004083067178726,
        -0.07559903711080551,
        0.009057133458554745,
        0.061184920370578766,
        0.06859840452671051,
        -0.030807608738541603,
        0.06606229394674301,
        -0.01617559604346752,
        -0.006172130815684795,
        -0.18754346668720245,
        0.04594305157661438,
        -0.07656987756490707,
        -0.128257617354393,
        -0.1537613868713379,
        0.0328652486205101,
        0.13701234757900238,
        0.1642463654279709,
        -0.169820174574852,
        0.07359934598207474,
        0.11693654209375381,
        0.012638912536203861,
        0.14298447966575623,
        0.00020053113985341042,
        -0.1602262556552887,
        0.035686686635017395,
        -0.12116023898124695,
        0.08178059756755829,
        -0.11587727814912796,
        0.04407353326678276,
        0.23863086104393005,
        0.24381473660469055,
        -0.055875033140182495,
        -0.1195211336016655,
        -0.11360375583171844,
        -0.06242070347070694,
        0.22303684055805206,
        0.058091484010219574,
        -0.0603521391749382,
        -0.12736676633358002,
        -0.0315307192504406,
        0.11256922781467438,
        -0.1659514307975769,
        -0.052805881947278976,
        -0.12796655297279358,
        -0.021616017445921898,
        0.14946907758712769,
        -0.06283215433359146,
        -0.044929612427949905,
        0.15094274282455444,
        -0.07001832872629166,
        0.006916285026818514,
        0.04963862523436546,
        0.0057861763052642345,
        0.054248858243227005,
        -0.05447801947593689,
        0.09715335071086884,
        0.06844484806060791,
        -0.1527205854654312,
        0.10208943486213684,
        0.20906458795070648,
        -0.12875860929489136,
        -0.0808168351650238,
        0.1102767214179039,
        -0.1258997619152069,
        0.0230680163949728,
        -0.04800587520003319,
        0.1584775149822235,
        -0.11996337026357651,
        -0.1763419210910797,
        0.03588635474443436,
        -0.04333146661520004,
        -0.2838515043258667,
        -0.1697625070810318,
        -0.22321240603923798,
        -0.14890429377555847,
        -0.07845845818519592,
        0.18962198495864868,
        0.13753505051136017,
        0.17665864527225494,
        0.17109867930412292,
        0.01761789061129093,
        -0.14189641177654266,
        0.17962750792503357,
        0.2154814898967743,
        0.15220829844474792,
        -0.15938284993171692,
        -0.007470780983567238,
        0.16689777374267578,
        -0.11278949677944183,
        -0.036654919385910034,
        0.15531256794929504,
        -0.16017165780067444,
        -0.08716222643852234,
        0.05248851329088211,
        -0.06427954137325287,
        -0.050633274018764496,
        0.23625853657722473,
        0.13629885017871857,
        0.040337130427360535,
        0.19826072454452515,
        -0.08874478191137314,
        -0.058519862592220306,
        0.07970153540372849,
        0.036727722734212875,
        0.18451941013336182,
        0.017693040892481804,
        0.11154519021511078,
        0.18091382086277008,
        -0.15486107766628265,
        -0.07224003225564957,
        0.03981422260403633,
        0.057985223829746246,
        0.10364630818367004,
        -0.08025480806827545,
        -0.024616511538624763,
        0.09017154574394226,
        -0.11920618265867233,
        -0.09339237958192825,
        0.08886770904064178,
        0.058511629700660706,
        -0.06437818706035614,
        -0.0684966966509819,
        -0.09286227822303772,
        -0.14485684037208557,
        0.08565736562013626,
        0.06279857456684113,
        0.18629460036754608,
        -0.07184665650129318,
        -0.05416366457939148,
        0.008606267161667347,
        0.16924838721752167,
        0.2082746922969818,
        0.1101837307214737,
        0.04144686087965965,
        -0.1602531224489212,
        -0.0563071109354496,
        -0.06996165961027145,
        -0.0025722142308950424,
        0.1561461091041565,
        -0.07663271576166153,
        -0.11033952981233597,
        -0.0928720086812973,
        0.0068060606718063354,
        -0.014580692164599895,
        -0.14183121919631958,
        -0.18921543657779694,
        0.10863876342773438,
        0.042464423924684525,
        -0.023163890466094017,
        0.009903044439852238,
        -0.02386012114584446,
        -0.11146609485149384,
        -0.15611912310123444,
        0.08818010240793228,
        0.03465616703033447,
        0.039380863308906555,
        0.052418433129787445,
        -0.05271916836500168,
        -0.14957307279109955,
        -0.16947510838508606,
        0.0989735797047615,
        0.16656890511512756,
        -0.2104950100183487,
        -0.06057730317115784,
        0.15300698578357697,
        -0.09052731096744537,
        0.08442971855401993,
        0.17637339234352112,
        0.03458850085735321,
        0.13025063276290894,
        0.01583114266395569,
        0.2491728663444519,
        -0.06329072266817093,
        -0.19612134993076324,
        -0.07461211830377579,
        -0.21835322678089142,
        0.029275039210915565,
        0.2045641392469406,
        -0.14767760038375854,
        0.006076128222048283,
        0.0002097989054163918,
        0.1206391379237175,
        0.08113198727369308,
        0.05069640278816223,
        -0.09599621593952179,
        0.03942636027932167,
        -0.05944587290287018,
        0.05592639371752739,
        0.21244147419929504,
        0.02911616675555706,
        -0.06933517009019852,
        0.22025540471076965,
        -0.01973065175116062,
        0.2228127419948578,
        -0.010090910829603672,
        -0.15236878395080566,
        -0.15160468220710754,
        0.11918053776025772,
        -0.18040592968463898,
        0.05885251984000206,
        -0.1387767493724823,
        0.09906677156686783,
        -0.0015152322594076395,
        -0.06305409222841263,
        -0.018571266904473305,
        0.05092785507440567,
        0.07139484584331512,
        0.06162433698773384,
        0.1456947922706604,
        -0.17542573809623718,
        0.1004987582564354,
        -0.0316755585372448,
        0.05806645378470421,
        0.153316468000412,
        -0.030648868530988693,
        -0.15464183688163757,
        -0.1727931797504425,
        0.038271501660346985,
        -0.0076422011479735374,
        0.032723501324653625,
        0.0895785316824913,
        0.26108232140541077,
        0.22906464338302612,
        -0.05384928733110428,
        -0.012214290909469128,
        -0.13587892055511475,
        0.1155528724193573,
        0.11130577325820923,
        0.11046376824378967,
        -0.07880811393260956,
        -0.203782320022583,
        0.09594962000846863,
        0.043449074029922485,
        -0.062389228492975235,
        0.20578759908676147,
        -0.057955510914325714,
        -0.05564578250050545,
        0.024772468954324722,
        0.03309261053800583,
        -0.1415446400642395,
        0.21242399513721466,
        0.09229577332735062,
        0.21237975358963013,
        0.0633137971162796,
        0.10982116311788559,
        -0.1647837907075882,
        -0.003607027931138873,
        0.06833628565073013,
        -0.001200480037368834,
        -0.20197027921676636,
        -0.0650818943977356,
        0.017769010737538338,
        -0.15054951608181,
        0.00965269934386015,
        0.008541558869183064,
        0.011685343459248543,
        -0.11822716146707535,
        -0.10242937505245209,
        -0.1509576290845871,
        -0.04066694155335426,
        0.17091454565525055,
        -0.14601664245128632,
        -0.16366375982761383,
        -0.06981078535318375,
        -0.04773291200399399,
        -0.17068485915660858,
        -0.22371354699134827,
        0.21177351474761963,
        0.01900065317749977,
        -0.0852499008178711,
        0.00789744220674038,
        -0.09435433894395828,
        0.12372638285160065,
        0.10516991466283798,
        0.02009904384613037,
        -0.07431001216173172,
        -0.03344674035906792,
        -0.18721695244312286,
        0.17913436889648438,
        0.11352989822626114,
        0.09989091753959656,
        0.029433108866214752,
        0.016917841508984566,
        -0.2090420126914978,
        0.028623012825846672,
        -0.11557602882385254,
        -0.14488458633422852,
        0.11593310534954071,
        -0.03468475118279457,
        0.03904742747545242,
        0.02540256641805172,
        -0.11189072579145432,
        -0.0019082778599113226,
        -0.03332928568124771,
        0.06702929735183716,
        0.06795164942741394,
        0.18519367277622223,
        -0.04006476327776909,
        0.025000644847750664,
        -0.0815153568983078,
        0.14105124771595,
        0.13284550607204437,
        -0.13150139153003693,
        -0.1291797012090683,
        -0.1305076628923416,
        -0.02145962417125702,
        0.03341794013977051,
        0.010118383914232254,
        0.18433669209480286,
        0.06547664850950241,
        -0.01872338354587555,
        -0.05517444387078285,
        0.13859671354293823,
        0.10750298947095871,
        0.004632776603102684,
        0.04113023355603218,
        0.17175090312957764,
        -0.07789641618728638,
        0.08217905461788177,
        0.059520527720451355,
        0.1514490693807602,
        -0.03167492523789406,
        -0.05289421230554581,
        0.010475019924342632,
        -0.08702166378498077,
        -0.13815979659557343,
        0.2064862847328186,
        -0.004842804279178381,
        0.11661172658205032,
        -0.06536243855953217,
        -0.061116598546504974,
        -0.09557082504034042,
        0.007446203846484423,
        -0.10785757750272751,
        -0.08515753597021103,
        0.16249237954616547,
        -0.055071745067834854,
        0.1238698735833168,
        0.008605754002928734,
        -0.05301285907626152,
        -0.08745425939559937,
        -0.10650329291820526,
        -0.09474485367536545,
        -0.15462630987167358,
        -0.013768553733825684,
        0.029687177389860153,
        -0.0332455113530159,
        -0.1789752095937729,
        0.21663978695869446,
        0.09403697401285172,
        -0.15932121872901917,
        -0.08477336168289185,
        0.12988407909870148,
        0.2327674776315689,
        -0.2461330145597458,
        -0.0349898524582386,
        0.06095881760120392,
        -0.0921439677476883,
        0.20725494623184204,
        0.11788009852170944,
        0.25149163603782654,
        0.1127450242638588,
        0.008596369065344334,
        0.025824235752224922,
        -0.07417754828929901,
        -0.10253990441560745,
        -0.10082174092531204,
        -0.04014965519309044,
        0.22980865836143494,
        -0.007030824199318886,
        -0.030785273760557175,
        0.030890613794326782,
        -0.1291159987449646,
        0.1014934703707695,
        0.09976419806480408,
        -0.20242975652217865,
        -0.09507529437541962,
        0.16068315505981445,
        -0.16244684159755707,
        0.06664563715457916,
        0.2709823250770569,
        -0.051746197044849396,
        0.026423590257763863,
        0.176593616604805,
        -0.2181437909603119,
        -0.08899638801813126,
        -0.20072829723358154,
        -0.25459185242652893,
        -0.027054768055677414,
        -0.0010385914938524365,
        -0.19620932638645172,
        -0.21512147784233093,
        0.028694894164800644,
        0.040204085409641266,
        -0.0072218282148242,
        -0.15885022282600403,
        -0.12016740441322327,
        0.11041794717311859,
        -0.11629414558410645,
        -0.06108318641781807,
        0.06353184580802917,
        -0.09866032749414444,
        0.030185040086507797,
        -0.005225157365202904,
        0.09512711316347122,
        -0.053209464997053146,
        0.004293703939765692,
        0.05130811780691147,
        -0.07912564277648926,
        0.050725337117910385,
        -0.11269160360097885,
        -0.032475780695676804,
        0.027879908680915833,
        -0.056184738874435425,
        -0.07731492817401886,
        0.020531024783849716,
        0.07993295788764954,
        -0.09312545508146286,
        0.0019832793623209,
        0.031377051025629044,
        0.036877404898405075,
        0.011433119885623455,
        0.1683606207370758,
        0.0234926026314497,
        -0.18868562579154968,
        -0.047488197684288025,
        0.15996132791042328,
        -0.006503504700958729,
        -0.04086797684431076,
        0.20668931305408478,
        0.09175270795822144,
        -0.010361786000430584,
        -0.007914549671113491,
        0.0811726450920105,
        0.04860443249344826,
        0.06813026964664459,
        -0.05783296376466751,
        0.04139023646712303,
        0.081975556910038,
        0.04478171840310097,
        -0.024044180288910866,
        -0.05984281376004219,
        -0.16086144745349884,
        0.01941601373255253,
        0.11414454132318497,
        0.017701219767332077,
        -0.07713624089956284,
        0.028255648910999298,
        0.044539254158735275,
        -0.07263612002134323,
        -0.10342743992805481,
        0.1549299657344818,
        0.04658173397183418,
        0.15080636739730835,
        0.22568298876285553,
        0.17625144124031067,
        0.13026027381420135,
        0.1894207000732422,
        0.08960255980491638,
        -0.055396564304828644,
        0.01632203347980976,
        -0.03536958247423172,
        -0.1334245502948761,
        -0.13811491429805756,
        -0.00884473416954279,
        0.09130746871232986,
        0.0027404625434428453,
        0.027350058779120445,
        0.12990409135818481,
        -0.07605937868356705,
        -0.10785264521837234,
        -0.16271312534809113,
        0.08845598995685577,
        -0.01593029499053955,
        -0.04371016472578049,
        0.12137536704540253,
        -0.06208540126681328,
        -0.03593045100569725,
        0.16837666928768158,
        0.08968137949705124,
        -0.26279208064079285,
        -0.14960874617099762,
        -0.0917440876364708,
        0.08011280745267868,
        -0.022385401651263237,
        -0.17363910377025604,
        -0.007397214882075787,
        -0.07042035460472107,
        -0.2725216746330261,
        -0.11341723054647446,
        -0.020277881994843483,
        0.12381935864686966,
        0.012642220593988895,
        0.15980909764766693,
        -0.025466056540608406,
        0.0728127509355545,
        0.00808493047952652,
        -0.04333796352148056,
        0.1213286966085434,
        0.11760669946670532,
        -0.014337106607854366,
        -0.04736977443099022,
        -0.018488192930817604,
        -0.07262436300516129,
        0.09536156058311462,
        -0.05849058926105499,
        -0.15365929901599884,
        -0.07892697304487228,
        -0.16505974531173706,
        0.07497066259384155,
        -0.10437341034412384,
        -0.14513924717903137,
        -0.04111255332827568,
        -0.11618959903717041,
        -0.13447149097919464,
        0.03256208077073097,
        -0.06985697150230408,
        0.10795234888792038,
        0.15368756651878357,
        -0.07976780086755753,
        -0.05360634624958038,
        -0.16373682022094727,
        0.13483449816703796,
        0.1901683211326599,
        0.0894780158996582,
        0.13450764119625092,
        -0.12880755960941315,
        0.0046137552708387375,
        0.08614033460617065,
        0.032245274633169174,
        0.18695513904094696,
        0.0068832202814519405,
        -0.0016337570268660784,
        -0.06228214502334595,
        0.16979624330997467,
        -0.010146655142307281,
        0.07214821875095367,
        0.032287683337926865,
        0.06878039240837097,
        0.0018555064452812076,
        -0.010726533830165863,
        -0.015251383185386658,
        0.06176457926630974,
        0.040965694934129715,
        0.12640726566314697,
        0.10019221156835556,
        0.05810202658176422,
        -0.15392586588859558,
        0.12546637654304504,
        -0.058938752859830856,
        -0.013887287117540836,
        0.06155691668391228,
        0.02325781248509884,
        0.09827902168035507,
        0.15921439230442047,
        -0.040425561368465424,
        0.05921522527933121,
        -0.17111723124980927,
        -0.07966924458742142,
        0.02901208959519863,
        0.0703396275639534,
        0.1655568927526474,
        0.049698032438755035,
        -0.07169527560472488,
        -0.009890010580420494,
        -0.09487292170524597,
        0.14681623876094818,
        0.05280793085694313,
        -0.1417880803346634,
        0.14390192925930023,
        -0.053344130516052246,
        -0.0231452826410532,
        4.092314702575095e-05,
        -0.05736071243882179,
        0.02385232225060463,
        0.008508477360010147,
        -0.181703582406044,
        -0.04534132778644562,
        -0.06168609857559204,
        0.05138230696320534,
        0.054662756621837616,
        -0.1138380691409111,
        -0.05942269414663315,
        -0.09430453926324844,
        -0.11612266302108765,
        0.029198015108704567,
        -0.02306903712451458,
        0.061694566160440445,
        -0.08477584272623062,
        -0.016562310978770256,
        -0.025805149227380753,
        0.037079818546772,
        0.20930440723896027,
        -0.05339211970567703,
        0.00948295183479786,
        0.17799988389015198,
        -0.04630386829376221,
        0.026074472814798355,
        0.025177480652928352,
        -0.03208988159894943,
        0.02215508371591568,
        0.10899487137794495,
        0.08550972491502762,
        0.04057912528514862,
        -0.19572708010673523,
        0.0006165707018226385,
        -0.01261616125702858,
        0.09065703302621841,
        -0.025466302409768105,
        -0.054076600819826126,
        -0.09244822710752487,
        -0.0033709004055708647,
        0.09923995286226273,
        -0.03844951465725899,
        -0.12841090559959412,
        -0.07267308980226517,
        -0.072621189057827,
        0.06925187259912491,
        0.06687749177217484,
        0.1997278779745102,
        0.04451362043619156,
        0.16173608601093292,
        0.17011211812496185,
        -0.082670658826828,
        0.010809144005179405,
        -0.016759080812335014,
        -0.056715793907642365,
        -0.0716845914721489,
        -0.03581681475043297,
        -0.13319335877895355,
        -0.15002688765525818,
        -0.006474185269325972,
        -0.2117510885000229,
        0.10046324133872986,
        -0.09023617208003998,
        0.08956935256719589,
        -0.03902202844619751,
        0.12022251635789871,
        -0.06937301158905029,
        0.060277365148067474,
        0.07421489804983139,
        0.07650686800479889,
        0.059801135212183,
        0.13746145367622375,
        0.11444281041622162,
        0.038439568132162094,
        0.08136243373155594,
        -0.11380840092897415,
        -0.040111009031534195,
        0.003339343471452594,
        0.030910879373550415,
        -0.0772283524274826,
        -0.22958910465240479,
        -0.04207523167133331,
        0.00960030872374773,
        0.11402620375156403,
        -0.1904967725276947,
        0.042996831238269806,
        -0.22905175387859344,
        -0.14482267200946808,
        -0.06906811892986298,
        0.03920334205031395,
        0.0394873172044754,
        -0.13922175765037537,
        0.09123369306325912,
        0.09299153089523315,
        0.03144178166985512,
        0.1922769993543625,
        -0.06119326129555702,
        -0.04174625128507614,
        0.04429042711853981,
        -0.006824007723480463,
        -0.09234882146120071,
        -0.09400006383657455,
        0.07291334867477417,
        0.04217522218823433,
        0.1544465869665146,
        -0.0723082423210144,
        0.08548083901405334,
        -0.020141590386629105,
        0.08525151759386063,
        -0.016234437003731728,
        0.05391916260123253,
        0.10118008404970169,
        0.1707557886838913,
        0.10100599378347397,
        0.027493594214320183,
        0.2139681875705719,
        -0.08332167565822601,
        0.03856869041919708,
        0.25758078694343567,
        0.18908259272575378,
        -0.06430113315582275,
        -0.1752377599477768,
        0.02147156558930874,
        -0.0756826251745224,
        0.14685942232608795,
        0.02325981855392456,
        0.04492626711726189,
        -0.037400513887405396,
        -0.5118211507797241,
        0.3218473196029663,
        0.344618558883667,
        -0.39536330103874207,
        0.18238478899002075,
        -0.8468980193138123,
        -0.17096391320228577,
        -0.4408528506755829,
        0.8517892360687256,
        -1.046258568763733,
        -0.6136060357093811,
        -0.954591691493988,
        0.1856278032064438,
        -0.8399935364723206,
        0.40014949440956116,
        -0.6976346373558044,
        -0.11134438961744308,
        -0.1487431824207306,
        0.21954864263534546,
        0.3251921236515045,
        0.30091631412506104,
        -0.2530193030834198,
        -0.06922774761915207,
        -0.07426422834396362,
        -0.037522561848163605,
        -0.17886197566986084,
        0.03547715023159981,
        0.06398345530033112,
        0.07222701609134674,
        -0.031979065388441086,
        -0.12969748675823212,
        -0.05863194540143013,
        0.033596526831388474,
        -0.13455425202846527,
        -0.07054677605628967,
        -0.08178671449422836,
        -0.23809081315994263,
        0.195595845580101,
        -0.09667172282934189,
        -0.27539461851119995,
        0.10288099199533463,
        -0.041480790823698044,
        0.13443051278591156,
        0.3419544994831085,
        0.0839092954993248,
        0.09325598180294037,
        0.11557318270206451,
        0.23637109994888306,
        0.15056318044662476,
        -0.30698102712631226,
        -0.2852356433868408,
        0.027206851169466972,
        -0.0029223232995718718,
        0.4034580886363983,
        -0.2859427034854889,
        0.1898818463087082,
        0.07943626493215561,
        0.17994949221611023,
        -0.13111472129821777,
        -0.15727214515209198,
        -0.047261495143175125,
        0.10906949639320374,
        0.07857440412044525,
        0.0056271678768098354,
        0.10393913835287094,
        0.08272247016429901,
        -0.23176883161067963,
        -0.2537011504173279,
        -0.1413566917181015,
        0.05163084343075752,
        -0.19762758910655975,
        -0.10658257454633713,
        -0.09221679717302322,
        0.16646966338157654,
        0.03822261095046997,
        0.32868337631225586,
        0.20117397606372833,
        -0.10190407186746597,
        0.03720143064856529,
        0.0322582982480526,
        0.5318068861961365,
        -0.11738677322864532,
        -0.123354971408844,
        -0.1463102251291275,
        0.1160094141960144,
        -0.017476461827754974,
        -0.10214387625455856,
        0.36508089303970337,
        0.3730008602142334,
        -0.06754545122385025,
        -0.09321554005146027,
        0.10763531923294067,
        -0.23808057606220245,
        -0.11908850073814392,
        -0.18047551810741425,
        -0.21211491525173187,
        -0.3015398383140564,
        -0.11647754162549973,
        0.02976319193840027,
        0.051972776651382446,
        0.1461821347475052,
        -0.39073291420936584,
        0.15801887214183807,
        -0.17060664296150208,
        0.15434855222702026,
        0.07245989888906479,
        -0.16146044433116913,
        -0.2793075740337372,
        -0.2198006808757782,
        -0.27299290895462036,
        0.05777501314878464,
        0.022727765142917633,
        -0.03790190443396568,
        -0.12789386510849,
        -0.1179175153374672,
        -0.43887147307395935,
        0.008666876703500748,
        0.47112157940864563,
        -0.5770092606544495,
        -0.25668442249298096,
        0.09452765434980392,
        0.2842748463153839,
        -0.02792702242732048,
        0.23829297721385956,
        0.09315329045057297,
        0.19465956091880798,
        -0.07724791020154953,
        0.3146401345729828,
        0.0730459913611412,
        0.05694391950964928,
        0.15729846060276031,
        0.10518672317266464,
        0.20645029842853546,
        -0.21406841278076172,
        -0.025294816121459007,
        0.014764085412025452,
        -0.09349976480007172,
        0.21737653017044067,
        -0.23273594677448273,
        0.04298325255513191,
        -0.2208426594734192,
        0.03249550610780716,
        0.20474565029144287,
        0.025572994723916054,
        -0.033243365585803986,
        0.1316705346107483,
        -0.3018733859062195,
        -0.26232674717903137,
        -0.19492819905281067,
        -0.04036996513605118,
        -0.16225984692573547,
        -0.14387531578540802,
        0.021257968619465828,
        0.14830808341503143,
        0.26999446749687195,
        -0.005359449423849583,
        -0.06291751563549042,
        0.2024349421262741,
        -0.07746150344610214,
        0.27438420057296753,
        -0.31486523151397705,
        0.06653503328561783,
        -0.08938232809305191,
        0.0685589537024498,
        0.05758623406291008,
        -0.11599667370319366,
        0.08877535909414291,
        -0.15442055463790894,
        -0.21113182604312897,
        0.07260477542877197,
        0.22847063839435577,
        0.3418533205986023,
        0.2520040273666382,
        0.0978228822350502,
        0.19213934242725372,
        0.009883491322398186,
        -0.013132520020008087,
        -0.13136576116085052,
        -0.37736591696739197,
        -0.006350087001919746,
        -0.017378060147166252,
        0.07427611202001572,
        -0.21648530662059784,
        0.044868797063827515,
        0.1876072734594345,
        0.3702552318572998,
        -0.11794906854629517,
        0.17664802074432373,
        0.09556903690099716,
        0.12314774841070175,
        -0.044075094163417816,
        0.07860412448644638,
        0.12502676248550415,
        0.2160436511039734,
        -0.36383962631225586,
        -0.1103002056479454,
        -0.19319942593574524,
        -0.041414640843868256,
        0.021668005734682083,
        0.1879558265209198,
        -0.18044176697731018,
        0.223332479596138,
        0.27476492524147034,
        -0.05658172070980072,
        0.0728929340839386,
        -0.0647149309515953,
        0.05277123674750328,
        -0.07308880984783173,
        -0.12554189562797546,
        -0.22124364972114563,
        -0.26689204573631287,
        0.1944054216146469,
        -0.08195546269416809,
        0.025335364043712616,
        -0.11999385803937912,
        0.2637598514556885,
        -0.04948600009083748,
        -0.10821849852800369,
        -0.2049858421087265,
        -0.26914724707603455,
        0.22257311642169952,
        -0.12454889714717865,
        -0.06093383580446243,
        -0.07787521183490753,
        0.07346045225858688,
        0.08741848915815353,
        -0.2759475111961365,
        0.20155063271522522,
        -0.2588375508785248,
        0.12159017473459244,
        -0.08525349944829941,
        -0.002917177276685834,
        0.14023461937904358,
        0.2315441519021988,
        0.06677868217229843,
        -0.043128617107868195,
        0.24978043138980865,
        0.1784251630306244,
        0.03887810558080673,
        -0.05179062485694885,
        -0.08328834176063538,
        0.28777363896369934,
        -0.004966086708009243,
        -0.08040650933980942,
        -0.2380286306142807,
        -0.1347970962524414,
        0.15103094279766083,
        -0.09771541506052017,
        -0.1016281470656395,
        0.13356845080852509,
        -0.13135986030101776,
        -0.005820375867187977,
        0.056687358766794205,
        0.13105875253677368,
        0.24013744294643402,
        0.23063276708126068,
        0.3419131338596344,
        -0.2583838701248169,
        0.01142966840416193,
        0.09823142737150192,
        -0.13379129767417908,
        -0.008337767794728279,
        -0.10725308209657669,
        0.17776864767074585,
        0.33526548743247986,
        -0.28083962202072144,
        0.14191217720508575,
        0.06802436709403992,
        -0.31902265548706055,
        0.17320013046264648,
        -0.21983934938907623,
        -0.23705872893333435,
        -0.1682874709367752,
        -0.043443989008665085,
        0.057118408381938934,
        -0.11099906265735626,
        -0.1761576384305954,
        -0.001307777245528996,
        0.1330062597990036,
        0.13944995403289795,
        0.06908168643712997,
        0.04167595133185387,
        0.029353251680731773,
        -0.17388752102851868,
        0.17227022349834442,
        -0.21802683174610138,
        -0.0791761726140976,
        -0.09390317648649216,
        0.11989293247461319,
        0.03402101993560791,
        -0.04315270110964775,
        -0.04781346768140793,
        -0.11521042883396149,
        0.016228316351771355,
        -0.03220345824956894,
        0.037319596856832504,
        0.03646212816238403,
        0.03566940128803253,
        -0.0688149556517601,
        0.030457261949777603,
        0.21625278890132904,
        0.0632392093539238,
        -0.053327031433582306,
        0.1054987758398056,
        0.02636358141899109,
        -0.12859006226062775,
        -0.1563509851694107,
        -0.052450891584157944,
        0.07419461756944656,
        0.02951357141137123,
        0.028506796807050705,
        -0.21934004127979279,
        -0.12824144959449768,
        0.12892411649227142,
        0.09782332926988602,
        -0.08557212352752686,
        -0.004778939764946699,
        -0.02653590403497219,
        -0.12284296005964279,
        0.08130519837141037,
        0.044952936470508575,
        -0.12198085337877274,
        0.07033035159111023,
        0.137946218252182,
        0.05346207693219185,
        -0.03611099347472191,
        -0.0026553834322839975,
        -0.12720173597335815,
        0.13964144885540009,
        0.021182380616664886,
        0.045472972095012665,
        0.04582802578806877,
        -0.05722440034151077,
        0.18881607055664062,
        -0.12003636360168457,
        -0.09024321287870407,
        -0.022221924737095833,
        -0.1228836178779602,
        0.18842987716197968,
        -0.13767139613628387,
        0.20296524465084076,
        -0.17496813833713531,
        0.04844604805111885,
        0.14650140702724457,
        0.009887081570923328,
        -0.0679946020245552,
        0.01749136671423912,
        -0.13829761743545532,
        0.12422361224889755,
        -0.13656596839427948,
        0.0004096740740351379,
        -0.037948474287986755,
        -0.07238703221082687,
        -0.06036761403083801,
        0.008079015649855137,
        -0.0365527868270874,
        0.04443540796637535,
        -0.08130086213350296,
        -0.13965265452861786,
        -0.028095757588744164,
        0.0037350603379309177,
        0.06022105738520622,
        -0.18390215933322906,
        0.04736747965216637,
        0.19459956884384155,
        -0.017281074076890945,
        0.05130826681852341,
        0.1243206039071083,
        -0.08773472160100937,
        -0.07206422835588455,
        0.0359276719391346,
        -0.13695664703845978,
        0.025345131754875183,
        0.05981551855802536,
        0.06287328898906708,
        -0.0659920945763588,
        0.09854558855295181,
        -0.17645378410816193,
        -0.06827333569526672,
        0.27992570400238037,
        0.05418515205383301,
        0.18557561933994293,
        -0.1486607789993286,
        0.019161799922585487,
        0.009871319867670536,
        0.01408514752984047,
        -0.1536867469549179,
        0.18893972039222717,
        -0.03813263028860092,
        -0.06583046913146973,
        0.16744136810302734,
        -0.11850747466087341,
        0.10626225173473358,
        -0.10814666748046875,
        -0.0676594004034996,
        0.06564722210168839,
        -0.12508273124694824,
        -0.13267551362514496,
        0.07589761167764664,
        0.046214085072278976,
        0.17262323200702667,
        0.06101120635867119,
        0.11654616892337799,
        0.07757343351840973,
        0.03963222727179527,
        -0.08836240321397781,
        0.15584614872932434,
        0.16352693736553192,
        0.1502288579940796,
        -0.03689037635922432,
        0.0077177076600492,
        0.08654461801052094,
        0.03496344015002251,
        -0.09410179406404495,
        -0.07044916599988937,
        -0.03174619749188423,
        -0.08083181083202362,
        0.00414113886654377,
        -0.10066542029380798,
        -0.02025829255580902,
        0.048478368669748306,
        0.018890971317887306,
        -0.005842606071382761,
        0.021560829132795334,
        -0.1380157172679901,
        -0.004714420530945063,
        0.21878227591514587,
        -0.12079249322414398,
        -0.029146449640393257,
        -0.25089213252067566,
        -0.06547080725431442,
        0.11647539585828781,
        -0.13433824479579926,
        -0.11866847425699234,
        0.3561916649341583,
        -0.09416777640581131,
        0.21188797056674957,
        -0.09318260848522186,
        0.09855976700782776,
        0.219918355345726,
        -0.2864907383918762,
        0.1571006327867508,
        0.1628386676311493,
        -0.19585838913917542,
        0.040553491562604904,
        -0.09273075312376022,
        -0.0008405594853684306,
        -0.12120413035154343,
        -0.20948660373687744,
        0.2546466886997223,
        0.12260735780000687,
        0.08452910929918289,
        -0.3151754140853882,
        -0.04817675054073334,
        -0.06686711311340332,
        0.16402553021907806,
        0.03816188499331474,
        0.16044314205646515,
        -0.04564415663480759,
        -0.13812708854675293,
        -0.0597204715013504,
        -0.32289958000183105,
        0.040962833911180496,
        0.18127010762691498,
        -0.11229182034730911,
        0.23944926261901855,
        0.10384078323841095,
        -0.23436975479125977,
        0.02893912047147751,
        -0.09626121819019318,
        0.12394534051418304,
        0.18799492716789246,
        0.1397167146205902,
        -0.038113921880722046,
        0.010244960896670818,
        0.11432628333568573,
        0.036868780851364136,
        -0.05689380690455437,
        -0.13812711834907532,
        0.042701609432697296,
        0.08795192837715149,
        -0.04800669476389885,
        0.009008887223899364,
        -0.08340238034725189,
        0.06769946962594986,
        0.12170926481485367,
        -0.009582672268152237,
        0.05318887159228325,
        0.025085046887397766,
        -0.035842202603816986,
        0.12252586334943771,
        -0.006417968310415745,
        -0.006563141010701656,
        0.07788927108049393,
        -0.05045656859874725,
        0.0554967001080513,
        0.14089477062225342,
        -0.10673851519823074,
        -0.21110916137695312,
        -0.14667373895645142,
        0.16103875637054443,
        0.007975729182362556,
        -0.08051688224077225,
        -0.02711864747107029,
        -0.0482947938144207,
        -0.16891372203826904,
        0.17757673561573029,
        -0.008746561594307423,
        0.06945860385894775,
        0.09454204142093658,
        -0.10011859238147736,
        -0.060858629643917084,
        0.1575571745634079,
        -0.07765447348356247,
        0.021578127518296242,
        -0.034242138266563416,
        -0.06301368027925491,
        0.07767768949270248,
        -0.04659007862210274,
        -0.11019733548164368,
        -0.13011200726032257,
        0.20232915878295898,
        -0.11601383984088898,
        -0.20016898214817047,
        0.17616038024425507,
        0.16330239176750183,
        -0.03072642721235752,
        -0.1413499414920807,
        0.2077440768480301,
        -0.23222987353801727,
        0.02090831659734249,
        -0.0545155331492424,
        0.004275537095963955,
        -0.10660062730312347,
        -0.22992658615112305,
        0.23861968517303467,
        -0.19876231253147125,
        -0.11068341135978699,
        -0.03299598768353462,
        0.071060411632061,
        0.03852681815624237,
        -0.03914113715291023,
        0.02398643083870411,
        -0.11902482807636261,
        -0.3318319320678711,
        0.0319722481071949,
        -0.27347075939178467,
        0.1447463482618332,
        -0.13339819014072418,
        -0.11604659259319305,
        -0.28931352496147156,
        -0.020045222714543343,
        0.005807013716548681,
        0.10072043538093567,
        -0.14700783789157867,
        -0.22169144451618195,
        -0.015171338804066181,
        -0.06546908617019653,
        -0.09621242433786392,
        0.20019225776195526,
        -0.09666638821363449,
        -0.016021009534597397,
        0.32553941011428833,
        0.05663273483514786,
        0.2425561398267746,
        0.0010423215571790934,
        0.05937538295984268,
        -0.0624135285615921,
        0.3273511826992035,
        0.07345321774482727,
        -0.09169649332761765,
        -0.051590446382761,
        -0.014806155115365982,
        0.21892200410366058,
        -0.0198550745844841,
        -0.14161410927772522,
        -0.06201693043112755,
        -0.14964359998703003,
        0.05393883213400841,
        0.07633263617753983,
        0.0007876048912294209,
        -0.11293258517980576,
        0.04394559934735298,
        -0.1263570785522461,
        -0.3692644536495209,
        -0.020408177748322487,
        0.16695524752140045,
        -0.05155276134610176,
        -0.07496798038482666,
        -0.0897800549864769,
        0.051276907324790955,
        -0.07999854534864426,
        0.09204630553722382,
        0.19169504940509796,
        0.05620945245027542,
        0.11589326709508896,
        -0.13253222405910492,
        0.08083982020616531,
        0.07887551933526993,
        -0.002287519397214055,
        -0.09480961412191391,
        0.01674247905611992,
        0.018669812008738518,
        0.03480370715260506,
        0.23240894079208374,
        -0.05406288057565689,
        -0.14211395382881165,
        0.07292855530977249,
        -0.24653096497058868,
        0.014134153723716736,
        0.0033549973741173744,
        -0.13170590996742249,
        -0.16289906203746796,
        -0.22281907498836517,
        0.020986372604966164,
        -0.00033843377605080605,
        -0.03923315927386284,
        -0.1578427255153656,
        -0.059982165694236755,
        0.11115557700395584,
        0.03852790966629982,
        0.059086624532938004,
        -0.18136052787303925,
        -0.005138985812664032,
        0.05764159932732582,
        0.1598002314567566,
        -0.11207783222198486,
        0.048238180577754974,
        -0.03149658069014549,
        0.03371318429708481,
        -0.06365756690502167,
        0.063947394490242,
        -0.027620872482657433,
        -0.12854823470115662,
        -0.07551497220993042,
        0.06028386950492859,
        -0.13140209019184113,
        0.06514199078083038,
        -0.02616836130619049,
        0.02786499820649624,
        0.13808932900428772,
        0.023024676367640495,
        -0.08333055675029755,
        -0.08351075649261475,
        0.02779192477464676,
        -0.08523061871528625,
        0.0967317447066307,
        -0.03300384432077408,
        0.009833055548369884,
        0.030097201466560364,
        -0.10688983649015427,
        -0.14369919896125793,
        -0.024940384551882744,
        -0.21417976915836334,
        0.1243400126695633,
        -0.16174444556236267,
        -0.004276393912732601,
        -0.05890030786395073,
        -0.08186359703540802,
        -0.17917445302009583,
        0.025741472840309143,
        0.13314436376094818,
        0.1735287308692932,
        -0.12795226275920868,
        -0.1597016155719757,
        -0.0037430408410727978,
        0.03797095641493797,
        -0.10290466994047165,
        -0.09865863621234894,
        -0.16781876981258392,
        -0.08712144196033478,
        -0.044361673295497894,
        -0.029108868911862373,
        -0.07116663455963135,
        -0.06767723709344864,
        0.10116896778345108,
        -0.10196790099143982,
        0.034592874348163605,
        0.02109120972454548,
        -0.04756782948970795,
        0.04345715790987015,
        -0.011483325622975826,
        0.08288118243217468,
        0.09710618108510971,
        -0.1833847612142563,
        -0.02042214758694172,
        0.00264592282474041,
        -0.031211217865347862,
        -0.019248491153120995,
        -0.13189436495304108,
        0.10364639759063721,
        -0.09866144508123398,
        0.02126256190240383,
        0.029480278491973877,
        -0.04827800765633583,
        0.002105891238898039,
        0.09888119250535965,
        -0.15025386214256287,
        0.05535176023840904,
        0.028463931754231453,
        0.06989094614982605,
        0.11736234277486801,
        0.07794956117868423,
        -0.07341480255126953,
        -0.1038825735449791,
        0.0073204669170081615,
        -0.00031635715276934206,
        -0.04256092756986618,
        -0.13672105967998505,
        0.117798812687397,
        -0.06824726611375809,
        0.049418043345212936,
        -0.15339304506778717,
        0.08890197426080704,
        0.17103956639766693,
        0.06132687255740166,
        -0.05235624685883522,
        -0.017737509682774544,
        0.054013244807720184,
        0.02122131921350956,
        -0.1498086005449295,
        -0.16872940957546234,
        -0.028667738661170006,
        -0.01335862185806036,
        0.20309150218963623,
        0.03235815092921257,
        -0.04149748012423515,
        0.29835477471351624,
        -0.043562181293964386,
        -0.15318210422992706,
        0.03284556791186333,
        -0.1565357744693756,
        0.06999318301677704,
        0.011172506958246231,
        -0.010462094098329544,
        -0.06847888976335526,
        -0.1459220051765442,
        -0.11713620275259018,
        -0.19780102372169495,
        0.11980044096708298,
        -0.18274298310279846,
        0.1240135133266449,
        -0.1872854381799698,
        -0.10597436130046844,
        -0.10529452562332153,
        -0.049621883779764175,
        0.11802379786968231,
        0.01352422684431076,
        -0.08292979747056961,
        0.01330974418669939,
        -0.04538065195083618,
        0.16884483397006989,
        -0.08124794065952301,
        -0.15092769265174866,
        0.24511916935443878,
        -0.12738639116287231,
        0.06421073526144028,
        0.03941009193658829,
        0.06304445117712021,
        -0.13915540277957916,
        0.015493175014853477,
        0.008824368007481098,
        -0.1437493860721588,
        0.11317476630210876,
        -0.0523613765835762,
        0.2566632032394409,
        0.011484258808195591,
        -0.12225709110498428,
        0.01942465826869011,
        -0.06520703434944153,
        0.10413859784603119,
        -0.0004375038552097976,
        0.15364688634872437,
        0.04942546412348747,
        0.047634728252887726,
        0.1314692497253418,
        -0.06067582592368126,
        0.07998288422822952,
        0.18893861770629883,
        0.008817718364298344,
        0.17086997628211975,
        -0.12955255806446075,
        0.11465776711702347,
        -0.010420768521726131,
        -0.05756181478500366,
        0.09693745523691177,
        0.08937595784664154,
        0.216754749417305,
        -0.2252376228570938,
        0.034807246178388596,
        0.038218963891267776,
        0.09523241966962814,
        -0.011953678913414478,
        0.15027426183223724,
        -0.12096294015645981,
        -0.007210159674286842,
        0.06605236232280731,
        -0.005715374369174242,
        0.043442729860544205,
        0.062304988503456116,
        -0.09140648692846298,
        0.12143950909376144,
        0.001547164749354124,
        -0.06480031460523605,
        0.035446811467409134,
        -0.14070284366607666,
        -0.01851378194987774,
        0.12272389233112335,
        -0.0487702339887619,
        -0.20068712532520294,
        -0.07122919708490372,
        0.18026776611804962,
        -0.22799234092235565,
        0.030662981793284416,
        -0.18906962871551514,
        0.055988144129514694,
        -0.011858789250254631,
        -0.02600095234811306,
        -0.012825890444219112,
        -0.06194981560111046,
        -0.1562424898147583,
        0.08878910541534424,
        0.004648957401514053,
        -0.0549607127904892,
        0.2364709973335266,
        -0.15872447192668915,
        -0.016050290316343307,
        0.1479649394750595,
        0.0719321221113205,
        0.023005401715636253,
        0.0026698133442550898,
        -0.0804855152964592,
        -0.06430786848068237,
        -0.11594327539205551,
        -0.06054924800992012,
        0.03717706352472305,
        0.1928848773241043,
        0.16004732251167297,
        -0.018963901326060295,
        -0.16709722578525543,
        -0.1644318550825119,
        0.005445868242532015,
        -0.05497794598340988,
        -0.18662089109420776,
        -0.13066868484020233,
        -0.06948655843734741,
        -0.10763424634933472,
        -0.13774530589580536,
        0.024328388273715973,
        0.061529505997896194,
        -0.12294095009565353,
        0.17812183499336243,
        0.04953126609325409,
        0.0738677978515625,
        -0.06579622626304626,
        -0.12696366012096405,
        -0.13544075191020966,
        0.2235814929008484,
        -0.04403118044137955,
        -0.18477992713451385,
        0.1725214272737503,
        0.023228097707033157,
        -0.04970807954668999,
        -0.1258612424135208,
        -0.0977456197142601,
        -0.12982773780822754,
        0.2884664535522461,
        0.0760994404554367,
        0.08796092867851257,
        -0.1517103910446167,
        -0.02809588983654976,
        -0.0008731613634154201,
        -0.006042475812137127,
        -0.015508944168686867,
        0.07125016301870346,
        -0.025736073032021523,
        0.16323286294937134,
        0.09440681338310242,
        0.0654410794377327,
        -0.04279234632849693,
        -0.12989282608032227,
        0.02355189435184002,
        -0.12581707537174225,
        0.21873356401920319,
        -0.11517336219549179,
        0.08049207925796509,
        -0.17803193628787994,
        -0.023018719628453255,
        0.014147711917757988,
        -0.054008595645427704,
        0.03027915023267269,
        -0.1807958334684372,
        0.03577375411987305,
        -0.09891009330749512,
        0.08711165189743042,
        0.2903570830821991,
        0.04913470521569252,
        0.0637945681810379,
        0.06766535341739655,
        0.03403095901012421,
        -0.05575030297040939,
        0.04676700383424759,
        0.010393097065389156,
        0.08858652412891388,
        0.2616698443889618,
        0.08267762511968613,
        -0.07659708708524704,
        0.11501763015985489,
        -0.18213143944740295,
        0.27246153354644775,
        -0.014926092699170113,
        0.07451250404119492,
        -0.018006548285484314,
        -0.10854668915271759,
        0.05897073820233345,
        0.14180201292037964,
        0.03492533788084984,
        -0.1440592110157013,
        0.12006436288356781,
        0.0780905932188034,
        -0.34493288397789,
        -0.07220498472452164,
        0.039495255798101425,
        0.004804977681487799,
        -0.11593130975961685,
        0.036723751574754715,
        0.1553041785955429,
        -0.09444884955883026,
        -0.10264987498521805,
        0.09361370652914047,
        0.06750200688838959,
        0.07831206172704697,
        -0.12754970788955688,
        -0.00268805050291121,
        0.001101414323784411,
        0.06501806527376175,
        0.03394920006394386,
        0.08834373950958252,
        -0.14702406525611877,
        0.11183086037635803,
        0.05767257139086723,
        0.050740472972393036,
        0.03087933361530304,
        0.0517565943300724,
        -0.31344175338745117,
        0.01737966202199459,
        0.13550975918769836,
        -0.17524607479572296,
        -0.13542263209819794,
        -0.06525132805109024,
        0.012459654361009598,
        0.0999460220336914,
        0.20137692987918854,
        -0.24609632790088654,
        -0.03952224180102348,
        0.05035954341292381,
        -0.12134622037410736,
        -0.09501542150974274,
        -0.11507672071456909,
        0.07324306666851044,
        0.0764680877327919,
        0.1342545598745346,
        0.1305396407842636,
        -0.033992305397987366,
        0.030062837526202202,
        0.08533715456724167,
        -0.11111262440681458,
        0.013174694031476974,
        0.03187672793865204,
        -0.15536034107208252,
        -0.06183759123086929,
        0.07286443561315536,
        0.01981685683131218,
        -0.045109059661626816,
        -0.16010920703411102,
        0.1620299220085144,
        -0.057129066437482834,
        -0.14846351742744446,
        -0.1467180699110031,
        0.03119184821844101,
        -0.10484469681978226,
        0.045796949416399,
        -0.0674557164311409,
        -0.025536509230732918,
        -0.018900010734796524,
        -0.07898569852113724,
        0.11084230244159698,
        0.05864369869232178,
        0.013545085676014423,
        0.11048289388418198,
        -0.15764157474040985,
        0.06479509174823761,
        0.09398872405290604,
        -0.0960138812661171,
        0.16372990608215332,
        -0.05887536332011223,
        -0.03922588750720024,
        -0.08950797468423843,
        -0.1018282100558281,
        -0.13192947208881378,
        -0.04512934759259224,
        0.12051309645175934,
        -0.08426842838525772,
        -0.10754867643117905,
        0.07491859048604965,
        0.08188280463218689,
        0.08873221278190613,
        -0.17922548949718475,
        -0.040242891758680344,
        0.1441693902015686,
        0.0428304597735405,
        -0.00025579912471584976,
        -0.03459508717060089,
        0.19513307511806488,
        -0.05642810836434364,
        0.05547698587179184,
        0.23239637911319733,
        -0.13264630734920502,
        -0.012758933939039707,
        0.16974756121635437,
        0.06284353137016296,
        0.16400831937789917,
        0.03009212575852871,
        0.12745757400989532,
        0.04858144745230675,
        -0.1892966777086258,
        0.056652944535017014,
        -0.07240080833435059,
        0.14453813433647156,
        0.07157568633556366,
        0.09645834565162659,
        0.016898138448596,
        -0.02434847131371498,
        -0.11196545511484146,
        0.0702466145157814,
        -0.18283219635486603,
        -0.08712469786405563,
        -0.03599086403846741,
        -0.009990004822611809,
        -0.16004788875579834,
        0.174495130777359,
        -0.17494404315948486,
        -0.014803153462707996,
        0.17974890768527985,
        -0.12114103883504868,
        0.2149142324924469,
        -0.10526269674301147,
        -0.055344827473163605,
        0.014778656885027885,
        0.043361250311136246,
        0.04665498435497284,
        -0.17278781533241272,
        -0.04016784951090813,
        -0.015679625794291496,
        0.006992246024310589,
        0.14812688529491425,
        0.0966220572590828,
        0.01569591462612152,
        0.04591107368469238,
        -0.13705527782440186,
        0.06929060071706772,
        0.013433702290058136,
        -0.051211562007665634,
        -0.07313352078199387,
        0.12056580185890198,
        0.12122077494859695,
        -0.001171173295006156,
        0.05753042921423912,
        -0.11402294039726257,
        0.019239619374275208,
        0.0023629385977983475,
        0.02505268156528473,
        -0.34067410230636597,
        -0.44571706652641296,
        1.0707368850708008,
        0.3527287542819977,
        -0.49998924136161804,
        -0.08903985470533371,
        -0.037184786051511765,
        -0.14549265801906586,
        0.48414838314056396,
        -0.8175152540206909,
        1.0454442501068115,
        0.5529443025588989,
        -0.062048885971307755,
        -0.2287210077047348,
        0.1438392698764801,
        -0.7680031061172485,
        0.27124640345573425,
        -0.09904260188341141,
        -0.09055979549884796,
        -0.1621154099702835,
        0.1868205964565277,
        0.556391179561615,
        0.23043155670166016,
        -0.07133246213197708,
        0.1332702487707138,
        0.14312744140625,
        0.06062985211610794,
        0.20539365708827972,
        -0.09930497407913208,
        0.014617452397942543,
        0.13368964195251465,
        -0.28008022904396057,
        0.23186834156513214,
        -0.01649376191198826,
        -0.08196930587291718,
        0.1430002748966217,
        0.20034267008304596,
        0.269524484872818,
        -0.04517143592238426,
        -0.17249795794487,
        -0.28345710039138794,
        0.13704551756381989,
        -0.04733387753367424,
        -0.07888318598270416,
        0.1907002180814743,
        0.1754564493894577,
        0.15567927062511444,
        -0.014423061162233353,
        0.09775281697511673,
        -0.3297908306121826,
        0.2314937859773636,
        -0.5184766054153442,
        0.334064245223999,
        -0.3798636496067047,
        -0.166721910238266,
        -0.08974675834178925,
        -0.16710810363292694,
        -0.06914174556732178,
        -0.5101761817932129,
        0.37753263115882874,
        0.0028456642758101225,
        -0.5122224688529968,
        0.07719483226537704,
        0.44244584441185,
        0.25398504734039307,
        -0.0445866659283638,
        0.08843296766281128,
        -0.07441281527280807,
        -0.06279432773590088,
        0.14011727273464203,
        -0.21834202110767365,
        0.27791640162467957,
        0.18935568630695343,
        -0.007200639229267836,
        -0.003994080238044262,
        0.276030957698822,
        0.025127766653895378,
        0.09624792635440826,
        0.12079716473817825,
        -0.030436672270298004,
        0.14758022129535675,
        -0.18965892493724823,
        0.3304976522922516,
        -0.36128517985343933,
        0.14264872670173645,
        -0.31173384189605713,
        -0.07210732251405716,
        0.0012603906216099858,
        0.21607667207717896,
        -0.10459400713443756,
        -0.35136333107948303,
        0.2162495255470276,
        -0.35071441531181335,
        -0.3299589157104492,
        0.19388149678707123,
        0.01492364052683115,
        -0.18619213998317719,
        -0.05716997757554054,
        0.038368698209524155,
        -0.02110573649406433,
        -0.16001391410827637,
        0.0828266516327858,
        0.2294120192527771,
        0.0019102237420156598,
        -0.08679386228322983,
        -0.20809148252010345,
        0.1491401344537735,
        0.0015114906709641218,
        0.07464883476495743,
        0.21913331747055054,
        0.19974617660045624,
        -0.11644165217876434,
        0.23689568042755127,
        0.14800332486629486,
        -0.39558616280555725,
        0.07689218968153,
        0.33390873670578003,
        0.08289090543985367,
        0.02602394111454487,
        -0.041430018842220306,
        -0.34371787309646606,
        0.2317451387643814,
        0.19776496291160583,
        -0.003412991063669324,
        0.3160950541496277,
        -0.08249598741531372,
        0.23935618996620178,
        0.2758848965167999,
        0.24174834787845612,
        0.1413446068763733,
        -0.21012328565120697,
        -0.20511463284492493,
        0.14088767766952515,
        -0.07747675478458405,
        0.07768991589546204,
        -0.11915738880634308,
        0.024400753900408745,
        0.030003856867551804,
        0.008702180348336697,
        0.25641629099845886,
        0.058222707360982895,
        0.07096614688634872,
        0.14369399845600128,
        -0.15584005415439606,
        -0.13615871965885162,
        0.23824158310890198,
        -0.17111900448799133,
        0.17412462830543518,
        0.1772490292787552,
        0.1018151044845581,
        -0.21883821487426758,
        0.02101276069879532,
        -0.11164108663797379,
        0.1934363842010498,
        -0.10993316769599915,
        0.26383623480796814,
        -0.19928176701068878,
        -0.12028901278972626,
        0.04757174476981163,
        0.051508139818906784,
        0.25602707266807556,
        0.05493296682834625,
        -0.3560696840286255,
        0.4325576722621918,
        0.09992345422506332,
        0.43020856380462646,
        -0.17769238352775574,
        -0.13608993589878082,
        -0.013665556907653809,
        0.1670033186674118,
        0.2975936830043793,
        -0.16133998334407806,
        0.11196864396333694,
        -0.07017362117767334,
        0.18371997773647308,
        -0.12244153767824173,
        0.3416617512702942,
        -0.19252893328666687,
        -0.1551496833562851,
        -0.3075892925262451,
        0.33646106719970703,
        -0.2308359444141388,
        0.010167593136429787,
        -0.034066807478666306,
        0.19584228098392487,
        0.06250470131635666,
        -0.4105210602283478,
        0.15587519109249115,
        -0.02122163213789463,
        -0.39132824540138245,
        0.19029904901981354,
        0.39970484375953674,
        0.036151058971881866,
        0.007428391836583614,
        0.010730842128396034,
        -0.005150221288204193,
        -0.06591010838747025,
        0.07336287945508957,
        0.16335010528564453,
        0.1128297671675682,
        -0.07700215280056,
        -0.23651783168315887,
        -0.23555254936218262,
        0.2600134313106537,
        -0.3420690596103668,
        -0.2659735679626465,
        -0.04933806508779526,
        0.17028188705444336,
        -0.2762683928012848,
        -0.26152583956718445,
        0.11111804097890854,
        -0.06144963577389717,
        0.19402866065502167,
        -0.17447936534881592,
        -0.3169996738433838,
        -0.27987056970596313,
        0.22042514383792877,
        -0.1629297286272049,
        -0.0663771778345108,
        0.016192298382520676,
        -0.1669052690267563,
        0.028042828664183617,
        0.0034933527931571007,
        -0.01821504905819893,
        -0.21882210671901703,
        0.12646199762821198,
        -0.1088467538356781,
        0.05559759587049484,
        -0.011742498725652695,
        -0.20859792828559875,
        0.12719860672950745,
        -0.1283794790506363,
        0.08030840754508972,
        0.016244713217020035,
        0.15022632479667664,
        -0.25855305790901184,
        -0.04498061165213585,
        0.11951287090778351,
        -0.24712848663330078,
        0.0829109251499176,
        0.07577426731586456,
        0.29400452971458435,
        -0.0875217467546463,
        0.057464614510536194,
        -0.045815952122211456,
        0.169973224401474,
        0.04498201236128807,
        -0.2514268457889557,
        0.2470237910747528,
        0.24531465768814087,
        0.19762085378170013,
        0.2099757194519043,
        0.02879326231777668,
        0.023713508620858192,
        -0.004287822172045708,
        -0.20999477803707123,
        -0.061907313764095306,
        -0.021555036306381226,
        0.040360383689403534,
        -0.40058526396751404,
        -0.08367250114679337,
        -0.022138148546218872,
        -0.14020775258541107,
        -0.20650780200958252,
        0.08104297518730164,
        0.1353706419467926,
        0.03320719674229622,
        0.22119140625,
        -0.34881868958473206,
        -0.10528893768787384,
        -0.05187738686800003,
        0.11844523251056671,
        -0.040873438119888306,
        0.022404804825782776,
        0.1492825150489807,
        0.08589652925729752,
        -0.0690004974603653,
        0.19721923768520355,
        0.12730100750923157,
        0.003954126499593258,
        -0.25309109687805176,
        -0.1082540825009346,
        0.0619208924472332,
        0.10052312165498734,
        0.3346269130706787,
        0.16507546603679657,
        0.10936079174280167,
        -0.044724684208631516,
